digraph Tree {
node [shape=box, style="filled, rounded", color="black", fontname="helvetica"] ;
edge [fontname="helvetica"] ;
0 [label="total_bill <= 25.8\ngini = 0.472\nsamples = 244\nvalue = [151, 93]\nclass = No", fillcolor="#f5cfb3"] ;
1 [label="tip <= 3.96\ngini = 0.452\nsamples = 194\nvalue = [127, 67]\nclass = No", fillcolor="#f3c3a1"] ;
0 -> 1 [labeldistance=2.5, labelangle=45, headlabel="True"] ;
2 [label="total_bill <= 16.48\ngini = 0.426\nsamples = 169\nvalue = [117, 52]\nclass = No", fillcolor="#f1b991"] ;
1 -> 2 ;
3 [label="tip <= 1.175\ngini = 0.468\nsamples = 102\nvalue = [64, 38]\nclass = No", fillcolor="#f4ccaf"] ;
2 -> 3 ;
4 [label="total_bill <= 6.5\ngini = 0.32\nsamples = 5\nvalue = [1, 4]\nclass = Yes", fillcolor="#6ab6ec"] ;
3 -> 4 ;
5 [label="gini = 0.0\nsamples = 2\nvalue = [0, 2]\nclass = Yes", fillcolor="#399de5"] ;
4 -> 5 ;
6 [label="total_bill <= 9.925\ngini = 0.444\nsamples = 3\nvalue = [1, 2]\nclass = Yes", fillcolor="#9ccef2"] ;
4 -> 6 ;
7 [label="gini = 0.0\nsamples = 1\nvalue = [1, 0]\nclass = No", fillcolor="#e58139"] ;
6 -> 7 ;
8 [label="gini = 0.0\nsamples = 2\nvalue = [0, 2]\nclass = Yes", fillcolor="#399de5"] ;
6 -> 8 ;
9 [label="total_bill <= 10.335\ngini = 0.455\nsamples = 97\nvalue = [63, 34]\nclass = No", fillcolor="#f3c5a4"] ;
3 -> 9 ;
10 [label="tip <= 1.875\ngini = 0.266\nsamples = 19\nvalue = [16, 3]\nclass = No", fillcolor="#ea995e"] ;
9 -> 10 ;
11 [label="total_bill <= 8.045\ngini = 0.142\nsamples = 13\nvalue = [12, 1]\nclass = No", fillcolor="#e78c49"] ;
10 -> 11 ;
12 [label="total_bill <= 7.65\ngini = 0.5\nsamples = 2\nvalue = [1, 1]\nclass = No", fillcolor="#ffffff"] ;
11 -> 12 ;
13 [label="gini = 0.0\nsamples = 1\nvalue = [1, 0]\nclass = No", fillcolor="#e58139"] ;
12 -> 13 ;
14 [label="gini = 0.0\nsamples = 1\nvalue = [0, 1]\nclass = Yes", fillcolor="#399de5"] ;
12 -> 14 ;
15 [label="gini = 0.0\nsamples = 11\nvalue = [11, 0]\nclass = No", fillcolor="#e58139"] ;
11 -> 15 ;
16 [label="tip <= 1.96\ngini = 0.444\nsamples = 6\nvalue = [4, 2]\nclass = No", fillcolor="#f2c09c"] ;
10 -> 16 ;
17 [label="gini = 0.0\nsamples = 1\nvalue = [0, 1]\nclass = Yes", fillcolor="#399de5"] ;
16 -> 17 ;
18 [label="sex <= 0.5\ngini = 0.32\nsamples = 5\nvalue = [4, 1]\nclass = No", fillcolor="#eca06a"] ;
16 -> 18 ;
19 [label="total_bill <= 10.19\ngini = 0.444\nsamples = 3\nvalue = [2, 1]\nclass = No", fillcolor="#f2c09c"] ;
18 -> 19 ;
20 [label="gini = 0.0\nsamples = 1\nvalue = [0, 1]\nclass = Yes", fillcolor="#399de5"] ;
19 -> 20 ;
21 [label="gini = 0.0\nsamples = 2\nvalue = [2, 0]\nclass = No", fillcolor="#e58139"] ;
19 -> 21 ;
22 [label="gini = 0.0\nsamples = 2\nvalue = [2, 0]\nclass = No", fillcolor="#e58139"] ;
18 -> 22 ;
23 [label="total_bill <= 16.46\ngini = 0.479\nsamples = 78\nvalue = [47, 31]\nclass = No", fillcolor="#f6d4bc"] ;
9 -> 23 ;
24 [label="total_bill <= 11.6\ngini = 0.476\nsamples = 77\nvalue = [47, 30]\nclass = No", fillcolor="#f6d1b7"] ;
23 -> 24 ;
25 [label="tip <= 1.71\ngini = 0.497\nsamples = 13\nvalue = [6, 7]\nclass = Yes", fillcolor="#e3f1fb"] ;
24 -> 25 ;
26 [label="total_bill <= 11.38\ngini = 0.408\nsamples = 7\nvalue = [5, 2]\nclass = No", fillcolor="#efb388"] ;
25 -> 26 ;
27 [label="tip <= 1.555\ngini = 0.278\nsamples = 6\nvalue = [5, 1]\nclass = No", fillcolor="#ea9a61"] ;
26 -> 27 ;
28 [label="gini = 0.0\nsamples = 4\nvalue = [4, 0]\nclass = No", fillcolor="#e58139"] ;
27 -> 28 ;
29 [label="total_bill <= 10.465\ngini = 0.5\nsamples = 2\nvalue = [1, 1]\nclass = No", fillcolor="#ffffff"] ;
27 -> 29 ;
30 [label="gini = 0.0\nsamples = 1\nvalue = [1, 0]\nclass = No", fillcolor="#e58139"] ;
29 -> 30 ;
31 [label="gini = 0.0\nsamples = 1\nvalue = [0, 1]\nclass = Yes", fillcolor="#399de5"] ;
29 -> 31 ;
32 [label="gini = 0.0\nsamples = 1\nvalue = [0, 1]\nclass = Yes", fillcolor="#399de5"] ;
26 -> 32 ;
33 [label="total_bill <= 11.365\ngini = 0.278\nsamples = 6\nvalue = [1, 5]\nclass = Yes", fillcolor="#61b1ea"] ;
25 -> 33 ;
34 [label="gini = 0.0\nsamples = 5\nvalue = [0, 5]\nclass = Yes", fillcolor="#399de5"] ;
33 -> 34 ;
35 [label="gini = 0.0\nsamples = 1\nvalue = [1, 0]\nclass = No", fillcolor="#e58139"] ;
33 -> 35 ;
36 [label="total_bill <= 12.715\ngini = 0.46\nsamples = 64\nvalue = [41, 23]\nclass = No", fillcolor="#f4c8a8"] ;
24 -> 36 ;
37 [label="total_bill <= 12.21\ngini = 0.26\nsamples = 13\nvalue = [11, 2]\nclass = No", fillcolor="#ea985d"] ;
36 -> 37 ;
38 [label="total_bill <= 12.025\ngini = 0.444\nsamples = 6\nvalue = [4, 2]\nclass = No", fillcolor="#f2c09c"] ;
37 -> 38 ;
39 [label="gini = 0.0\nsamples = 4\nvalue = [4, 0]\nclass = No", fillcolor="#e58139"] ;
38 -> 39 ;
40 [label="gini = 0.0\nsamples = 2\nvalue = [0, 2]\nclass = Yes", fillcolor="#399de5"] ;
38 -> 40 ;
41 [label="gini = 0.0\nsamples = 7\nvalue = [7, 0]\nclass = No", fillcolor="#e58139"] ;
37 -> 41 ;
42 [label="total_bill <= 13.015\ngini = 0.484\nsamples = 51\nvalue = [30, 21]\nclass = No", fillcolor="#f7d9c4"] ;
36 -> 42 ;
43 [label="gini = 0.0\nsamples = 4\nvalue = [0, 4]\nclass = Yes", fillcolor="#399de5"] ;
42 -> 43 ;
44 [label="tip <= 1.66\ngini = 0.462\nsamples = 47\nvalue = [30, 17]\nclass = No", fillcolor="#f4c8a9"] ;
42 -> 44 ;
45 [label="tip <= 1.575\ngini = 0.375\nsamples = 4\nvalue = [1, 3]\nclass = Yes", fillcolor="#7bbeee"] ;
44 -> 45 ;
46 [label="tip <= 1.535\ngini = 0.5\nsamples = 2\nvalue = [1, 1]\nclass = No", fillcolor="#ffffff"] ;
45 -> 46 ;
47 [label="gini = 0.0\nsamples = 1\nvalue = [0, 1]\nclass = Yes", fillcolor="#399de5"] ;
46 -> 47 ;
48 [label="gini = 0.0\nsamples = 1\nvalue = [1, 0]\nclass = No", fillcolor="#e58139"] ;
46 -> 48 ;
49 [label="gini = 0.0\nsamples = 2\nvalue = [0, 2]\nclass = Yes", fillcolor="#399de5"] ;
45 -> 49 ;
50 [label="total_bill <= 15.22\ngini = 0.439\nsamples = 43\nvalue = [29, 14]\nclass = No", fillcolor="#f2be99"] ;
44 -> 50 ;
51 [label="tip <= 3.355\ngini = 0.365\nsamples = 25\nvalue = [19, 6]\nclass = No", fillcolor="#eda978"] ;
50 -> 51 ;
52 [label="tip <= 2.555\ngini = 0.33\nsamples = 24\nvalue = [19, 5]\nclass = No", fillcolor="#eca26d"] ;
51 -> 52 ;
53 [label="tip <= 1.98\ngini = 0.43\nsamples = 16\nvalue = [11, 5]\nclass = No", fillcolor="#f1ba93"] ;
52 -> 53 ;
54 [label="gini = 0.0\nsamples = 2\nvalue = [2, 0]\nclass = No", fillcolor="#e58139"] ;
53 -> 54 ;
55 [label="total_bill <= 14.87\ngini = 0.459\nsamples = 14\nvalue = [9, 5]\nclass = No", fillcolor="#f3c7a7"] ;
53 -> 55 ;
56 [label="total_bill <= 13.2\ngini = 0.426\nsamples = 13\nvalue = [9, 4]\nclass = No", fillcolor="#f1b991"] ;
55 -> 56 ;
57 [label="gini = 0.0\nsamples = 2\nvalue = [2, 0]\nclass = No", fillcolor="#e58139"] ;
56 -> 57 ;
58 [label="total_bill <= 13.94\ngini = 0.463\nsamples = 11\nvalue = [7, 4]\nclass = No", fillcolor="#f4c9aa"] ;
56 -> 58 ;
59 [label="sex <= 0.5\ngini = 0.48\nsamples = 5\nvalue = [2, 3]\nclass = Yes", fillcolor="#bddef6"] ;
58 -> 59 ;
60 [label="gini = 0.0\nsamples = 1\nvalue = [0, 1]\nclass = Yes", fillcolor="#399de5"] ;
59 -> 60 ;
61 [label="total_bill <= 13.44\ngini = 0.5\nsamples = 4\nvalue = [2, 2]\nclass = No", fillcolor="#ffffff"] ;
59 -> 61 ;
62 [label="gini = 0.0\nsamples = 1\nvalue = [1, 0]\nclass = No", fillcolor="#e58139"] ;
61 -> 62 ;
63 [label="total_bill <= 13.66\ngini = 0.444\nsamples = 3\nvalue = [1, 2]\nclass = Yes", fillcolor="#9ccef2"] ;
61 -> 63 ;
64 [label="gini = 0.0\nsamples = 1\nvalue = [0, 1]\nclass = Yes", fillcolor="#399de5"] ;
63 -> 64 ;
65 [label="gini = 0.5\nsamples = 2\nvalue = [1, 1]\nclass = No", fillcolor="#ffffff"] ;
63 -> 65 ;
66 [label="tip <= 2.1\ngini = 0.278\nsamples = 6\nvalue = [5, 1]\nclass = No", fillcolor="#ea9a61"] ;
58 -> 66 ;
67 [label="sex <= 0.5\ngini = 0.444\nsamples = 3\nvalue = [2, 1]\nclass = No", fillcolor="#f2c09c"] ;
66 -> 67 ;
68 [label="gini = 0.0\nsamples = 2\nvalue = [2, 0]\nclass = No", fillcolor="#e58139"] ;
67 -> 68 ;
69 [label="gini = 0.0\nsamples = 1\nvalue = [0, 1]\nclass = Yes", fillcolor="#399de5"] ;
67 -> 69 ;
70 [label="gini = 0.0\nsamples = 3\nvalue = [3, 0]\nclass = No", fillcolor="#e58139"] ;
66 -> 70 ;
71 [label="gini = 0.0\nsamples = 1\nvalue = [0, 1]\nclass = Yes", fillcolor="#399de5"] ;
55 -> 71 ;
72 [label="gini = 0.0\nsamples = 8\nvalue = [8, 0]\nclass = No", fillcolor="#e58139"] ;
52 -> 72 ;
73 [label="gini = 0.0\nsamples = 1\nvalue = [0, 1]\nclass = Yes", fillcolor="#399de5"] ;
51 -> 73 ;
74 [label="total_bill <= 15.73\ngini = 0.494\nsamples = 18\nvalue = [10, 8]\nclass = No", fillcolor="#fae6d7"] ;
50 -> 74 ;
75 [label="gini = 0.0\nsamples = 4\nvalue = [0, 4]\nclass = Yes", fillcolor="#399de5"] ;
74 -> 75 ;
76 [label="tip <= 2.485\ngini = 0.408\nsamples = 14\nvalue = [10, 4]\nclass = No", fillcolor="#efb388"] ;
74 -> 76 ;
77 [label="tip <= 2.015\ngini = 0.198\nsamples = 9\nvalue = [8, 1]\nclass = No", fillcolor="#e89152"] ;
76 -> 77 ;
78 [label="total_bill <= 16.105\ngini = 0.375\nsamples = 4\nvalue = [3, 1]\nclass = No", fillcolor="#eeab7b"] ;
77 -> 78 ;
79 [label="total_bill <= 15.975\ngini = 0.5\nsamples = 2\nvalue = [1, 1]\nclass = No", fillcolor="#ffffff"] ;
78 -> 79 ;
80 [label="gini = 0.0\nsamples = 1\nvalue = [1, 0]\nclass = No", fillcolor="#e58139"] ;
79 -> 80 ;
81 [label="gini = 0.0\nsamples = 1\nvalue = [0, 1]\nclass = Yes", fillcolor="#399de5"] ;
79 -> 81 ;
82 [label="gini = 0.0\nsamples = 2\nvalue = [2, 0]\nclass = No", fillcolor="#e58139"] ;
78 -> 82 ;
83 [label="gini = 0.0\nsamples = 5\nvalue = [5, 0]\nclass = No", fillcolor="#e58139"] ;
77 -> 83 ;
84 [label="tip <= 2.75\ngini = 0.48\nsamples = 5\nvalue = [2, 3]\nclass = Yes", fillcolor="#bddef6"] ;
76 -> 84 ;
85 [label="gini = 0.0\nsamples = 2\nvalue = [0, 2]\nclass = Yes", fillcolor="#399de5"] ;
84 -> 85 ;
86 [label="total_bill <= 15.895\ngini = 0.444\nsamples = 3\nvalue = [2, 1]\nclass = No", fillcolor="#f2c09c"] ;
84 -> 86 ;
87 [label="gini = 0.0\nsamples = 1\nvalue = [0, 1]\nclass = Yes", fillcolor="#399de5"] ;
86 -> 87 ;
88 [label="gini = 0.0\nsamples = 2\nvalue = [2, 0]\nclass = No", fillcolor="#e58139"] ;
86 -> 88 ;
89 [label="gini = 0.0\nsamples = 1\nvalue = [0, 1]\nclass = Yes", fillcolor="#399de5"] ;
23 -> 89 ;
90 [label="total_bill <= 17.49\ngini = 0.331\nsamples = 67\nvalue = [53, 14]\nclass = No", fillcolor="#eca26d"] ;
2 -> 90 ;
91 [label="gini = 0.0\nsamples = 11\nvalue = [11, 0]\nclass = No", fillcolor="#e58139"] ;
90 -> 91 ;
92 [label="total_bill <= 17.55\ngini = 0.375\nsamples = 56\nvalue = [42, 14]\nclass = No", fillcolor="#eeab7b"] ;
90 -> 92 ;
93 [label="gini = 0.0\nsamples = 1\nvalue = [0, 1]\nclass = Yes", fillcolor="#399de5"] ;
92 -> 93 ;
94 [label="tip <= 2.105\ngini = 0.361\nsamples = 55\nvalue = [42, 13]\nclass = No", fillcolor="#eda876"] ;
92 -> 94 ;
95 [label="total_bill <= 21.45\ngini = 0.48\nsamples = 10\nvalue = [6, 4]\nclass = No", fillcolor="#f6d5bd"] ;
94 -> 95 ;
96 [label="total_bill <= 18.265\ngini = 0.278\nsamples = 6\nvalue = [5, 1]\nclass = No", fillcolor="#ea9a61"] ;
95 -> 96 ;
97 [label="tip <= 1.875\ngini = 0.5\nsamples = 2\nvalue = [1, 1]\nclass = No", fillcolor="#ffffff"] ;
96 -> 97 ;
98 [label="gini = 0.0\nsamples = 1\nvalue = [1, 0]\nclass = No", fillcolor="#e58139"] ;
97 -> 98 ;
99 [label="gini = 0.0\nsamples = 1\nvalue = [0, 1]\nclass = Yes", fillcolor="#399de5"] ;
97 -> 99 ;
100 [label="gini = 0.0\nsamples = 4\nvalue = [4, 0]\nclass = No", fillcolor="#e58139"] ;
96 -> 100 ;
101 [label="total_bill <= 24.41\ngini = 0.375\nsamples = 4\nvalue = [1, 3]\nclass = Yes", fillcolor="#7bbeee"] ;
95 -> 101 ;
102 [label="gini = 0.0\nsamples = 3\nvalue = [0, 3]\nclass = Yes", fillcolor="#399de5"] ;
101 -> 102 ;
103 [label="gini = 0.0\nsamples = 1\nvalue = [1, 0]\nclass = No", fillcolor="#e58139"] ;
101 -> 103 ;
104 [label="total_bill <= 22.455\ngini = 0.32\nsamples = 45\nvalue = [36, 9]\nclass = No", fillcolor="#eca06a"] ;
94 -> 104 ;
105 [label="total_bill <= 21.85\ngini = 0.389\nsamples = 34\nvalue = [25, 9]\nclass = No", fillcolor="#eeae80"] ;
104 -> 105 ;
106 [label="tip <= 2.915\ngini = 0.342\nsamples = 32\nvalue = [25, 7]\nclass = No", fillcolor="#eca470"] ;
105 -> 106 ;
107 [label="gini = 0.0\nsamples = 8\nvalue = [8, 0]\nclass = No", fillcolor="#e58139"] ;
106 -> 107 ;
108 [label="total_bill <= 21.085\ngini = 0.413\nsamples = 24\nvalue = [17, 7]\nclass = No", fillcolor="#f0b58b"] ;
106 -> 108 ;
109 [label="total_bill <= 20.775\ngini = 0.444\nsamples = 21\nvalue = [14, 7]\nclass = No", fillcolor="#f2c09c"] ;
108 -> 109 ;
110 [label="total_bill <= 18.195\ngini = 0.401\nsamples = 18\nvalue = [13, 5]\nclass = No", fillcolor="#efb185"] ;
109 -> 110 ;
111 [label="tip <= 3.04\ngini = 0.5\nsamples = 4\nvalue = [2, 2]\nclass = No", fillcolor="#ffffff"] ;
110 -> 111 ;
112 [label="gini = 0.0\nsamples = 1\nvalue = [1, 0]\nclass = No", fillcolor="#e58139"] ;
111 -> 112 ;
113 [label="total_bill <= 17.85\ngini = 0.444\nsamples = 3\nvalue = [1, 2]\nclass = Yes", fillcolor="#9ccef2"] ;
111 -> 113 ;
114 [label="gini = 0.0\nsamples = 1\nvalue = [1, 0]\nclass = No", fillcolor="#e58139"] ;
113 -> 114 ;
115 [label="gini = 0.0\nsamples = 2\nvalue = [0, 2]\nclass = Yes", fillcolor="#399de5"] ;
113 -> 115 ;
116 [label="tip <= 3.635\ngini = 0.337\nsamples = 14\nvalue = [11, 3]\nclass = No", fillcolor="#eca36f"] ;
110 -> 116 ;
117 [label="total_bill <= 19.11\ngini = 0.278\nsamples = 12\nvalue = [10, 2]\nclass = No", fillcolor="#ea9a61"] ;
116 -> 117 ;
118 [label="gini = 0.0\nsamples = 4\nvalue = [4, 0]\nclass = No", fillcolor="#e58139"] ;
117 -> 118 ;
119 [label="total_bill <= 19.465\ngini = 0.375\nsamples = 8\nvalue = [6, 2]\nclass = No", fillcolor="#eeab7b"] ;
117 -> 119 ;
120 [label="gini = 0.0\nsamples = 1\nvalue = [0, 1]\nclass = Yes", fillcolor="#399de5"] ;
119 -> 120 ;
121 [label="tip <= 3.195\ngini = 0.245\nsamples = 7\nvalue = [6, 1]\nclass = No", fillcolor="#e9965a"] ;
119 -> 121 ;
122 [label="gini = 0.0\nsamples = 4\nvalue = [4, 0]\nclass = No", fillcolor="#e58139"] ;
121 -> 122 ;
123 [label="tip <= 3.28\ngini = 0.444\nsamples = 3\nvalue = [2, 1]\nclass = No", fillcolor="#f2c09c"] ;
121 -> 123 ;
124 [label="gini = 0.0\nsamples = 1\nvalue = [0, 1]\nclass = Yes", fillcolor="#399de5"] ;
123 -> 124 ;
125 [label="gini = 0.0\nsamples = 2\nvalue = [2, 0]\nclass = No", fillcolor="#e58139"] ;
123 -> 125 ;
126 [label="total_bill <= 18.265\ngini = 0.5\nsamples = 2\nvalue = [1, 1]\nclass = No", fillcolor="#ffffff"] ;
116 -> 126 ;
127 [label="gini = 0.0\nsamples = 1\nvalue = [1, 0]\nclass = No", fillcolor="#e58139"] ;
126 -> 127 ;
128 [label="gini = 0.0\nsamples = 1\nvalue = [0, 1]\nclass = Yes", fillcolor="#399de5"] ;
126 -> 128 ;
129 [label="total_bill <= 20.955\ngini = 0.444\nsamples = 3\nvalue = [1, 2]\nclass = Yes", fillcolor="#9ccef2"] ;
109 -> 129 ;
130 [label="gini = 0.0\nsamples = 1\nvalue = [0, 1]\nclass = Yes", fillcolor="#399de5"] ;
129 -> 130 ;
131 [label="tip <= 3.25\ngini = 0.5\nsamples = 2\nvalue = [1, 1]\nclass = No", fillcolor="#ffffff"] ;
129 -> 131 ;
132 [label="gini = 0.0\nsamples = 1\nvalue = [0, 1]\nclass = Yes", fillcolor="#399de5"] ;
131 -> 132 ;
133 [label="gini = 0.0\nsamples = 1\nvalue = [1, 0]\nclass = No", fillcolor="#e58139"] ;
131 -> 133 ;
134 [label="gini = 0.0\nsamples = 3\nvalue = [3, 0]\nclass = No", fillcolor="#e58139"] ;
108 -> 134 ;
135 [label="gini = 0.0\nsamples = 2\nvalue = [0, 2]\nclass = Yes", fillcolor="#399de5"] ;
105 -> 135 ;
136 [label="gini = 0.0\nsamples = 11\nvalue = [11, 0]\nclass = No", fillcolor="#e58139"] ;
104 -> 136 ;
137 [label="total_bill <= 17.37\ngini = 0.48\nsamples = 25\nvalue = [10, 15]\nclass = Yes", fillcolor="#bddef6"] ;
1 -> 137 ;
138 [label="gini = 0.0\nsamples = 6\nvalue = [0, 6]\nclass = Yes", fillcolor="#399de5"] ;
137 -> 138 ;
139 [label="total_bill <= 25.285\ngini = 0.499\nsamples = 19\nvalue = [10, 9]\nclass = No", fillcolor="#fcf2eb"] ;
137 -> 139 ;
140 [label="total_bill <= 18.495\ngini = 0.492\nsamples = 16\nvalue = [7, 9]\nclass = Yes", fillcolor="#d3e9f9"] ;
139 -> 140 ;
141 [label="gini = 0.0\nsamples = 2\nvalue = [2, 0]\nclass = No", fillcolor="#e58139"] ;
140 -> 141 ;
142 [label="tip <= 4.07\ngini = 0.459\nsamples = 14\nvalue = [5, 9]\nclass = Yes", fillcolor="#a7d3f3"] ;
140 -> 142 ;
143 [label="gini = 0.0\nsamples = 4\nvalue = [0, 4]\nclass = Yes", fillcolor="#399de5"] ;
142 -> 143 ;
144 [label="total_bill <= 22.7\ngini = 0.5\nsamples = 10\nvalue = [5, 5]\nclass = No", fillcolor="#ffffff"] ;
142 -> 144 ;
145 [label="total_bill <= 20.25\ngini = 0.32\nsamples = 5\nvalue = [4, 1]\nclass = No", fillcolor="#eca06a"] ;
144 -> 145 ;
146 [label="gini = 0.0\nsamples = 1\nvalue = [0, 1]\nclass = Yes", fillcolor="#399de5"] ;
145 -> 146 ;
147 [label="gini = 0.0\nsamples = 4\nvalue = [4, 0]\nclass = No", fillcolor="#e58139"] ;
145 -> 147 ;
148 [label="tip <= 5.75\ngini = 0.32\nsamples = 5\nvalue = [1, 4]\nclass = Yes", fillcolor="#6ab6ec"] ;
144 -> 148 ;
149 [label="gini = 0.0\nsamples = 3\nvalue = [0, 3]\nclass = Yes", fillcolor="#399de5"] ;
148 -> 149 ;
150 [label="tip <= 6.175\ngini = 0.5\nsamples = 2\nvalue = [1, 1]\nclass = No", fillcolor="#ffffff"] ;
148 -> 150 ;
151 [label="gini = 0.0\nsamples = 1\nvalue = [1, 0]\nclass = No", fillcolor="#e58139"] ;
150 -> 151 ;
152 [label="gini = 0.0\nsamples = 1\nvalue = [0, 1]\nclass = Yes", fillcolor="#399de5"] ;
150 -> 152 ;
153 [label="gini = 0.0\nsamples = 3\nvalue = [3, 0]\nclass = No", fillcolor="#e58139"] ;
139 -> 153 ;
154 [label="tip <= 3.84\ngini = 0.499\nsamples = 50\nvalue = [24, 26]\nclass = Yes", fillcolor="#f0f7fd"] ;
0 -> 154 [labeldistance=2.5, labelangle=-45, headlabel="False"] ;
155 [label="total_bill <= 26.5\ngini = 0.236\nsamples = 22\nvalue = [3, 19]\nclass = Yes", fillcolor="#58ace9"] ;
154 -> 155 ;
156 [label="gini = 0.0\nsamples = 1\nvalue = [1, 0]\nclass = No", fillcolor="#e58139"] ;
155 -> 156 ;
157 [label="total_bill <= 28.76\ngini = 0.172\nsamples = 21\nvalue = [2, 19]\nclass = Yes", fillcolor="#4ea7e8"] ;
155 -> 157 ;
158 [label="total_bill <= 28.495\ngini = 0.408\nsamples = 7\nvalue = [2, 5]\nclass = Yes", fillcolor="#88c4ef"] ;
157 -> 158 ;
159 [label="tip <= 3.06\ngini = 0.278\nsamples = 6\nvalue = [1, 5]\nclass = Yes", fillcolor="#61b1ea"] ;
158 -> 159 ;
160 [label="gini = 0.0\nsamples = 3\nvalue = [0, 3]\nclass = Yes", fillcolor="#399de5"] ;
159 -> 160 ;
161 [label="total_bill <= 26.87\ngini = 0.444\nsamples = 3\nvalue = [1, 2]\nclass = Yes", fillcolor="#9ccef2"] ;
159 -> 161 ;
162 [label="gini = 0.0\nsamples = 2\nvalue = [0, 2]\nclass = Yes", fillcolor="#399de5"] ;
161 -> 162 ;
163 [label="gini = 0.0\nsamples = 1\nvalue = [1, 0]\nclass = No", fillcolor="#e58139"] ;
161 -> 163 ;
164 [label="gini = 0.0\nsamples = 1\nvalue = [1, 0]\nclass = No", fillcolor="#e58139"] ;
158 -> 164 ;
165 [label="gini = 0.0\nsamples = 14\nvalue = [0, 14]\nclass = Yes", fillcolor="#399de5"] ;
157 -> 165 ;
166 [label="total_bill <= 28.6\ngini = 0.375\nsamples = 28\nvalue = [21, 7]\nclass = No", fillcolor="#eeab7b"] ;
154 -> 166 ;
167 [label="tip <= 5.08\ngini = 0.48\nsamples = 5\nvalue = [2, 3]\nclass = Yes", fillcolor="#bddef6"] ;
166 -> 167 ;
168 [label="total_bill <= 27.24\ngini = 0.444\nsamples = 3\nvalue = [2, 1]\nclass = No", fillcolor="#f2c09c"] ;
167 -> 168 ;
169 [label="gini = 0.0\nsamples = 2\nvalue = [2, 0]\nclass = No", fillcolor="#e58139"] ;
168 -> 169 ;
170 [label="gini = 0.0\nsamples = 1\nvalue = [0, 1]\nclass = Yes", fillcolor="#399de5"] ;
168 -> 170 ;
171 [label="gini = 0.0\nsamples = 2\nvalue = [0, 2]\nclass = Yes", fillcolor="#399de5"] ;
167 -> 171 ;
172 [label="total_bill <= 49.57\ngini = 0.287\nsamples = 23\nvalue = [19, 4]\nclass = No", fillcolor="#ea9c63"] ;
166 -> 172 ;
173 [label="tip <= 5.035\ngini = 0.236\nsamples = 22\nvalue = [19, 3]\nclass = No", fillcolor="#e99558"] ;
172 -> 173 ;
174 [label="tip <= 4.7\ngini = 0.397\nsamples = 11\nvalue = [8, 3]\nclass = No", fillcolor="#efb083"] ;
173 -> 174 ;
175 [label="gini = 0.0\nsamples = 4\nvalue = [4, 0]\nclass = No", fillcolor="#e58139"] ;
174 -> 175 ;
176 [label="tip <= 4.865\ngini = 0.49\nsamples = 7\nvalue = [4, 3]\nclass = No", fillcolor="#f8e0ce"] ;
174 -> 176 ;
177 [label="gini = 0.0\nsamples = 1\nvalue = [0, 1]\nclass = Yes", fillcolor="#399de5"] ;
176 -> 177 ;
178 [label="total_bill <= 31.975\ngini = 0.444\nsamples = 6\nvalue = [4, 2]\nclass = No", fillcolor="#f2c09c"] ;
176 -> 178 ;
179 [label="gini = 0.0\nsamples = 1\nvalue = [1, 0]\nclass = No", fillcolor="#e58139"] ;
178 -> 179 ;
180 [label="total_bill <= 33.97\ngini = 0.48\nsamples = 5\nvalue = [3, 2]\nclass = No", fillcolor="#f6d5bd"] ;
178 -> 180 ;
181 [label="gini = 0.0\nsamples = 1\nvalue = [0, 1]\nclass = Yes", fillcolor="#399de5"] ;
180 -> 181 ;
182 [label="total_bill <= 42.15\ngini = 0.375\nsamples = 4\nvalue = [3, 1]\nclass = No", fillcolor="#eeab7b"] ;
180 -> 182 ;
183 [label="gini = 0.0\nsamples = 2\nvalue = [2, 0]\nclass = No", fillcolor="#e58139"] ;
182 -> 183 ;
184 [label="sex <= 0.5\ngini = 0.5\nsamples = 2\nvalue = [1, 1]\nclass = No", fillcolor="#ffffff"] ;
182 -> 184 ;
185 [label="gini = 0.0\nsamples = 1\nvalue = [0, 1]\nclass = Yes", fillcolor="#399de5"] ;
184 -> 185 ;
186 [label="gini = 0.0\nsamples = 1\nvalue = [1, 0]\nclass = No", fillcolor="#e58139"] ;
184 -> 186 ;
187 [label="gini = 0.0\nsamples = 11\nvalue = [11, 0]\nclass = No", fillcolor="#e58139"] ;
173 -> 187 ;
188 [label="gini = 0.0\nsamples = 1\nvalue = [0, 1]\nclass = Yes", fillcolor="#399de5"] ;
172 -> 188 ;
}